digraph Tree {
node [shape=box, fontname="helvetica"] ;
edge [fontname="helvetica"] ;
0 [label="X[4] <= 0.5\ngini = 0.458\nsamples = 257\nvalue = [210, 380]"] ;
1 [label="X[28] <= 0.5\ngini = 0.481\nsamples = 129\nvalue = [118, 176]"] ;
0 -> 1 [labeldistance=2.5, labelangle=45, headlabel="True"] ;
2 [label="X[55] <= 0.5\ngini = 0.493\nsamples = 66\nvalue = [74, 58]"] ;
1 -> 2 ;
3 [label="X[8] <= 0.5\ngini = 0.434\nsamples = 35\nvalue = [47, 22]"] ;
2 -> 3 ;
4 [label="X[51] <= 0.5\ngini = 0.497\nsamples = 18\nvalue = [21, 18]"] ;
3 -> 4 ;
5 [label="X[25] <= 0.5\ngini = 0.473\nsamples = 12\nvalue = [10, 16]"] ;
4 -> 5 ;
6 [label="X[16] <= 0.5\ngini = 0.426\nsamples = 7\nvalue = [9, 4]"] ;
5 -> 6 ;
7 [label="X[1] <= 0.5\ngini = 0.298\nsamples = 6\nvalue = [9, 2]"] ;
6 -> 7 ;
8 [label="gini = 0.0\nsamples = 4\nvalue = [8, 0]"] ;
7 -> 8 ;
9 [label="X[5] <= 0.5\ngini = 0.444\nsamples = 2\nvalue = [1, 2]"] ;
7 -> 9 ;
10 [label="gini = 0.0\nsamples = 1\nvalue = [0, 2]"] ;
9 -> 10 ;
11 [label="gini = 0.0\nsamples = 1\nvalue = [1, 0]"] ;
9 -> 11 ;
12 [label="gini = 0.0\nsamples = 1\nvalue = [0, 2]"] ;
6 -> 12 ;
13 [label="X[0] <= 0.5\ngini = 0.142\nsamples = 5\nvalue = [1, 12]"] ;
5 -> 13 ;
14 [label="X[19] <= 0.5\ngini = 0.245\nsamples = 3\nvalue = [1, 6]"] ;
13 -> 14 ;
15 [label="gini = 0.0\nsamples = 1\nvalue = [1, 0]"] ;
14 -> 15 ;
16 [label="gini = 0.0\nsamples = 2\nvalue = [0, 6]"] ;
14 -> 16 ;
17 [label="gini = 0.0\nsamples = 2\nvalue = [0, 6]"] ;
13 -> 17 ;
18 [label="X[58] <= 0.5\ngini = 0.26\nsamples = 6\nvalue = [11, 2]"] ;
4 -> 18 ;
19 [label="gini = 0.0\nsamples = 1\nvalue = [0, 2]"] ;
18 -> 19 ;
20 [label="gini = 0.0\nsamples = 5\nvalue = [11, 0]"] ;
18 -> 20 ;
21 [label="X[11] <= 0.5\ngini = 0.231\nsamples = 17\nvalue = [26, 4]"] ;
3 -> 21 ;
22 [label="gini = 0.0\nsamples = 11\nvalue = [21, 0]"] ;
21 -> 22 ;
23 [label="X[17] <= 0.5\ngini = 0.494\nsamples = 6\nvalue = [5, 4]"] ;
21 -> 23 ;
24 [label="X[0] <= 0.5\ngini = 0.32\nsamples = 3\nvalue = [1, 4]"] ;
23 -> 24 ;
25 [label="gini = 0.0\nsamples = 1\nvalue = [1, 0]"] ;
24 -> 25 ;
26 [label="gini = 0.0\nsamples = 2\nvalue = [0, 4]"] ;
24 -> 26 ;
27 [label="gini = 0.0\nsamples = 3\nvalue = [4, 0]"] ;
23 -> 27 ;
28 [label="X[35] <= 0.5\ngini = 0.49\nsamples = 31\nvalue = [27, 36]"] ;
2 -> 28 ;
29 [label="X[58] <= 0.5\ngini = 0.408\nsamples = 19\nvalue = [20, 8]"] ;
28 -> 29 ;
30 [label="gini = 0.0\nsamples = 7\nvalue = [9, 0]"] ;
29 -> 30 ;
31 [label="X[34] <= 0.5\ngini = 0.488\nsamples = 12\nvalue = [11, 8]"] ;
29 -> 31 ;
32 [label="X[8] <= 0.5\ngini = 0.32\nsamples = 7\nvalue = [8, 2]"] ;
31 -> 32 ;
33 [label="X[30] <= 0.5\ngini = 0.5\nsamples = 3\nvalue = [2, 2]"] ;
32 -> 33 ;
34 [label="gini = 0.0\nsamples = 2\nvalue = [2, 0]"] ;
33 -> 34 ;
35 [label="gini = 0.0\nsamples = 1\nvalue = [0, 2]"] ;
33 -> 35 ;
36 [label="gini = 0.0\nsamples = 4\nvalue = [6, 0]"] ;
32 -> 36 ;
37 [label="X[19] <= 0.5\ngini = 0.444\nsamples = 5\nvalue = [3, 6]"] ;
31 -> 37 ;
38 [label="X[30] <= 0.5\ngini = 0.48\nsamples = 3\nvalue = [3, 2]"] ;
37 -> 38 ;
39 [label="gini = 0.0\nsamples = 2\nvalue = [3, 0]"] ;
38 -> 39 ;
40 [label="gini = 0.0\nsamples = 1\nvalue = [0, 2]"] ;
38 -> 40 ;
41 [label="gini = 0.0\nsamples = 2\nvalue = [0, 4]"] ;
37 -> 41 ;
42 [label="X[46] <= 0.5\ngini = 0.32\nsamples = 12\nvalue = [7, 28]"] ;
28 -> 42 ;
43 [label="gini = 0.0\nsamples = 3\nvalue = [0, 14]"] ;
42 -> 43 ;
44 [label="X[31] <= 0.5\ngini = 0.444\nsamples = 9\nvalue = [7, 14]"] ;
42 -> 44 ;
45 [label="X[32] <= 0.5\ngini = 0.463\nsamples = 6\nvalue = [7, 4]"] ;
44 -> 45 ;
46 [label="gini = 0.0\nsamples = 4\nvalue = [7, 0]"] ;
45 -> 46 ;
47 [label="gini = 0.0\nsamples = 2\nvalue = [0, 4]"] ;
45 -> 47 ;
48 [label="gini = 0.0\nsamples = 3\nvalue = [0, 10]"] ;
44 -> 48 ;
49 [label="X[5] <= 0.5\ngini = 0.396\nsamples = 63\nvalue = [44, 118]"] ;
1 -> 49 ;
50 [label="X[34] <= 0.5\ngini = 0.285\nsamples = 46\nvalue = [22, 106]"] ;
49 -> 50 ;
51 [label="X[17] <= 0.5\ngini = 0.375\nsamples = 16\nvalue = [12, 36]"] ;
50 -> 51 ;
52 [label="X[15] <= 0.5\ngini = 0.49\nsamples = 9\nvalue = [9, 12]"] ;
51 -> 52 ;
53 [label="X[47] <= 0.5\ngini = 0.444\nsamples = 6\nvalue = [5, 10]"] ;
52 -> 53 ;
54 [label="X[42] <= 0.5\ngini = 0.198\nsamples = 3\nvalue = [1, 8]"] ;
53 -> 54 ;
55 [label="gini = 0.0\nsamples = 2\nvalue = [0, 8]"] ;
54 -> 55 ;
56 [label="gini = 0.0\nsamples = 1\nvalue = [1, 0]"] ;
54 -> 56 ;
57 [label="X[52] <= 0.5\ngini = 0.444\nsamples = 3\nvalue = [4, 2]"] ;
53 -> 57 ;
58 [label="gini = 0.0\nsamples = 2\nvalue = [4, 0]"] ;
57 -> 58 ;
59 [label="gini = 0.0\nsamples = 1\nvalue = [0, 2]"] ;
57 -> 59 ;
60 [label="X[37] <= 0.5\ngini = 0.444\nsamples = 3\nvalue = [4, 2]"] ;
52 -> 60 ;
61 [label="gini = 0.0\nsamples = 2\nvalue = [4, 0]"] ;
60 -> 61 ;
62 [label="gini = 0.0\nsamples = 1\nvalue = [0, 2]"] ;
60 -> 62 ;
63 [label="X[22] <= 0.5\ngini = 0.198\nsamples = 7\nvalue = [3, 24]"] ;
51 -> 63 ;
64 [label="gini = 0.0\nsamples = 3\nvalue = [0, 14]"] ;
63 -> 64 ;
65 [label="X[1] <= 0.5\ngini = 0.355\nsamples = 4\nvalue = [3, 10]"] ;
63 -> 65 ;
66 [label="gini = 0.0\nsamples = 2\nvalue = [3, 0]"] ;
65 -> 66 ;
67 [label="gini = 0.0\nsamples = 2\nvalue = [0, 10]"] ;
65 -> 67 ;
68 [label="X[35] <= 0.5\ngini = 0.219\nsamples = 30\nvalue = [10, 70]"] ;
50 -> 68 ;
69 [label="gini = 0.0\nsamples = 3\nvalue = [0, 10]"] ;
68 -> 69 ;
70 [label="X[16] <= 0.5\ngini = 0.245\nsamples = 27\nvalue = [10, 60]"] ;
68 -> 70 ;
71 [label="X[33] <= 0.5\ngini = 0.346\nsamples = 14\nvalue = [8, 28]"] ;
70 -> 71 ;
72 [label="gini = 0.0\nsamples = 1\nvalue = [2, 0]"] ;
71 -> 72 ;
73 [label="X[56] <= 0.5\ngini = 0.291\nsamples = 13\nvalue = [6, 28]"] ;
71 -> 73 ;
74 [label="X[60] <= 0.5\ngini = 0.185\nsamples = 9\nvalue = [3, 26]"] ;
73 -> 74 ;
75 [label="X[26] <= 0.5\ngini = 0.077\nsamples = 7\nvalue = [1, 24]"] ;
74 -> 75 ;
76 [label="X[46] <= 0.5\ngini = 0.444\nsamples = 2\nvalue = [1, 2]"] ;
75 -> 76 ;
77 [label="gini = 0.0\nsamples = 1\nvalue = [1, 0]"] ;
76 -> 77 ;
78 [label="gini = 0.0\nsamples = 1\nvalue = [0, 2]"] ;
76 -> 78 ;
79 [label="gini = 0.0\nsamples = 5\nvalue = [0, 22]"] ;
75 -> 79 ;
80 [label="X[48] <= 0.5\ngini = 0.5\nsamples = 2\nvalue = [2, 2]"] ;
74 -> 80 ;
81 [label="gini = 0.0\nsamples = 1\nvalue = [0, 2]"] ;
80 -> 81 ;
82 [label="gini = 0.0\nsamples = 1\nvalue = [2, 0]"] ;
80 -> 82 ;
83 [label="X[7] <= 0.5\ngini = 0.48\nsamples = 4\nvalue = [3, 2]"] ;
73 -> 83 ;
84 [label="gini = 0.0\nsamples = 1\nvalue = [0, 2]"] ;
83 -> 84 ;
85 [label="gini = 0.0\nsamples = 3\nvalue = [3, 0]"] ;
83 -> 85 ;
86 [label="X[60] <= 0.5\ngini = 0.111\nsamples = 13\nvalue = [2, 32]"] ;
70 -> 86 ;
87 [label="gini = 0.0\nsamples = 6\nvalue = [0, 16]"] ;
86 -> 87 ;
88 [label="X[26] <= 0.5\ngini = 0.198\nsamples = 7\nvalue = [2, 16]"] ;
86 -> 88 ;
89 [label="X[6] <= 0.5\ngini = 0.444\nsamples = 2\nvalue = [1, 2]"] ;
88 -> 89 ;
90 [label="gini = 0.0\nsamples = 1\nvalue = [0, 2]"] ;
89 -> 90 ;
91 [label="gini = 0.0\nsamples = 1\nvalue = [1, 0]"] ;
89 -> 91 ;
92 [label="X[38] <= 0.5\ngini = 0.124\nsamples = 5\nvalue = [1, 14]"] ;
88 -> 92 ;
93 [label="X[32] <= 0.5\ngini = 0.245\nsamples = 2\nvalue = [1, 6]"] ;
92 -> 93 ;
94 [label="gini = 0.0\nsamples = 1\nvalue = [0, 6]"] ;
93 -> 94 ;
95 [label="gini = 0.0\nsamples = 1\nvalue = [1, 0]"] ;
93 -> 95 ;
96 [label="gini = 0.0\nsamples = 3\nvalue = [0, 8]"] ;
92 -> 96 ;
97 [label="X[51] <= 0.5\ngini = 0.457\nsamples = 17\nvalue = [22, 12]"] ;
49 -> 97 ;
98 [label="gini = 0.0\nsamples = 7\nvalue = [11, 0]"] ;
97 -> 98 ;
99 [label="X[12] <= 0.5\ngini = 0.499\nsamples = 10\nvalue = [11, 12]"] ;
97 -> 99 ;
100 [label="X[17] <= 0.5\ngini = 0.391\nsamples = 7\nvalue = [11, 4]"] ;
99 -> 100 ;
101 [label="gini = 0.0\nsamples = 3\nvalue = [6, 0]"] ;
100 -> 101 ;
102 [label="X[29] <= 0.5\ngini = 0.494\nsamples = 4\nvalue = [5, 4]"] ;
100 -> 102 ;
103 [label="gini = 0.0\nsamples = 2\nvalue = [0, 4]"] ;
102 -> 103 ;
104 [label="gini = 0.0\nsamples = 2\nvalue = [5, 0]"] ;
102 -> 104 ;
105 [label="gini = 0.0\nsamples = 3\nvalue = [0, 8]"] ;
99 -> 105 ;
106 [label="X[53] <= 0.5\ngini = 0.428\nsamples = 128\nvalue = [92, 204]"] ;
0 -> 106 [labeldistance=2.5, labelangle=-45, headlabel="False"] ;
107 [label="X[27] <= 0.5\ngini = 0.381\nsamples = 62\nvalue = [40, 116]"] ;
106 -> 107 ;
108 [label="X[55] <= 0.5\ngini = 0.278\nsamples = 31\nvalue = [14, 70]"] ;
107 -> 108 ;
109 [label="X[50] <= 0.5\ngini = 0.351\nsamples = 15\nvalue = [10, 34]"] ;
108 -> 109 ;
110 [label="X[60] <= 0.5\ngini = 0.185\nsamples = 8\nvalue = [3, 26]"] ;
109 -> 110 ;
111 [label="X[46] <= 0.5\ngini = 0.133\nsamples = 7\nvalue = [2, 26]"] ;
110 -> 111 ;
112 [label="gini = 0.0\nsamples = 4\nvalue = [0, 18]"] ;
111 -> 112 ;
113 [label="X[32] <= 0.5\ngini = 0.32\nsamples = 3\nvalue = [2, 8]"] ;
111 -> 113 ;
114 [label="X[54] <= 0.5\ngini = 0.444\nsamples = 2\nvalue = [2, 4]"] ;
113 -> 114 ;
115 [label="gini = 0.0\nsamples = 1\nvalue = [2, 0]"] ;
114 -> 115 ;
116 [label="gini = 0.0\nsamples = 1\nvalue = [0, 4]"] ;
114 -> 116 ;
117 [label="gini = 0.0\nsamples = 1\nvalue = [0, 4]"] ;
113 -> 117 ;
118 [label="gini = 0.0\nsamples = 1\nvalue = [1, 0]"] ;
110 -> 118 ;
119 [label="X[35] <= 0.5\ngini = 0.498\nsamples = 7\nvalue = [7, 8]"] ;
109 -> 119 ;
120 [label="X[42] <= 0.5\ngini = 0.32\nsamples = 5\nvalue = [2, 8]"] ;
119 -> 120 ;
121 [label="gini = 0.0\nsamples = 1\nvalue = [1, 0]"] ;
120 -> 121 ;
122 [label="X[38] <= 0.5\ngini = 0.198\nsamples = 4\nvalue = [1, 8]"] ;
120 -> 122 ;
123 [label="gini = 0.0\nsamples = 3\nvalue = [0, 8]"] ;
122 -> 123 ;
124 [label="gini = 0.0\nsamples = 1\nvalue = [1, 0]"] ;
122 -> 124 ;
125 [label="gini = 0.0\nsamples = 2\nvalue = [5, 0]"] ;
119 -> 125 ;
126 [label="X[21] <= 0.5\ngini = 0.18\nsamples = 16\nvalue = [4, 36]"] ;
108 -> 126 ;
127 [label="X[20] <= 0.5\ngini = 0.444\nsamples = 6\nvalue = [3, 6]"] ;
126 -> 127 ;
128 [label="X[52] <= 0.5\ngini = 0.48\nsamples = 4\nvalue = [3, 2]"] ;
127 -> 128 ;
129 [label="gini = 0.0\nsamples = 3\nvalue = [3, 0]"] ;
128 -> 129 ;
130 [label="gini = 0.0\nsamples = 1\nvalue = [0, 2]"] ;
128 -> 130 ;
131 [label="gini = 0.0\nsamples = 2\nvalue = [0, 4]"] ;
127 -> 131 ;
132 [label="X[18] <= 0.5\ngini = 0.062\nsamples = 10\nvalue = [1, 30]"] ;
126 -> 132 ;
133 [label="X[62] <= 0.5\ngini = 0.32\nsamples = 3\nvalue = [1, 4]"] ;
132 -> 133 ;
134 [label="gini = 0.0\nsamples = 1\nvalue = [1, 0]"] ;
133 -> 134 ;
135 [label="gini = 0.0\nsamples = 2\nvalue = [0, 4]"] ;
133 -> 135 ;
136 [label="gini = 0.0\nsamples = 7\nvalue = [0, 26]"] ;
132 -> 136 ;
137 [label="X[26] <= 0.5\ngini = 0.461\nsamples = 31\nvalue = [26, 46]"] ;
107 -> 137 ;
138 [label="X[12] <= 0.5\ngini = 0.266\nsamples = 8\nvalue = [3, 16]"] ;
137 -> 138 ;
139 [label="gini = 0.0\nsamples = 2\nvalue = [3, 0]"] ;
138 -> 139 ;
140 [label="gini = 0.0\nsamples = 6\nvalue = [0, 16]"] ;
138 -> 140 ;
141 [label="X[42] <= 0.5\ngini = 0.491\nsamples = 23\nvalue = [23, 30]"] ;
137 -> 141 ;
142 [label="X[48] <= 0.5\ngini = 0.43\nsamples = 13\nvalue = [10, 22]"] ;
141 -> 142 ;
143 [label="X[2] <= 0.5\ngini = 0.298\nsamples = 8\nvalue = [4, 18]"] ;
142 -> 143 ;
144 [label="X[5] <= 0.5\ngini = 0.444\nsamples = 3\nvalue = [3, 6]"] ;
143 -> 144 ;
145 [label="gini = 0.0\nsamples = 1\nvalue = [0, 4]"] ;
144 -> 145 ;
146 [label="X[61] <= 0.5\ngini = 0.48\nsamples = 2\nvalue = [3, 2]"] ;
144 -> 146 ;
147 [label="gini = 0.0\nsamples = 1\nvalue = [0, 2]"] ;
146 -> 147 ;
148 [label="gini = 0.0\nsamples = 1\nvalue = [3, 0]"] ;
146 -> 148 ;
149 [label="X[50] <= 0.5\ngini = 0.142\nsamples = 5\nvalue = [1, 12]"] ;
143 -> 149 ;
150 [label="X[45] <= 0.5\ngini = 0.444\nsamples = 2\nvalue = [1, 2]"] ;
149 -> 150 ;
151 [label="gini = 0.0\nsamples = 1\nvalue = [0, 2]"] ;
150 -> 151 ;
152 [label="gini = 0.0\nsamples = 1\nvalue = [1, 0]"] ;
150 -> 152 ;
153 [label="gini = 0.0\nsamples = 3\nvalue = [0, 10]"] ;
149 -> 153 ;
154 [label="X[25] <= 0.5\ngini = 0.48\nsamples = 5\nvalue = [6, 4]"] ;
142 -> 154 ;
155 [label="gini = 0.0\nsamples = 1\nvalue = [0, 4]"] ;
154 -> 155 ;
156 [label="gini = 0.0\nsamples = 4\nvalue = [6, 0]"] ;
154 -> 156 ;
157 [label="X[54] <= 0.5\ngini = 0.472\nsamples = 10\nvalue = [13, 8]"] ;
141 -> 157 ;
158 [label="X[57] <= 0.5\ngini = 0.391\nsamples = 8\nvalue = [11, 4]"] ;
157 -> 158 ;
159 [label="X[52] <= 0.5\ngini = 0.5\nsamples = 5\nvalue = [4, 4]"] ;
158 -> 159 ;
160 [label="gini = 0.0\nsamples = 3\nvalue = [4, 0]"] ;
159 -> 160 ;
161 [label="gini = 0.0\nsamples = 2\nvalue = [0, 4]"] ;
159 -> 161 ;
162 [label="gini = 0.0\nsamples = 3\nvalue = [7, 0]"] ;
158 -> 162 ;
163 [label="X[9] <= 0.5\ngini = 0.444\nsamples = 2\nvalue = [2, 4]"] ;
157 -> 163 ;
164 [label="gini = 0.0\nsamples = 1\nvalue = [2, 0]"] ;
163 -> 164 ;
165 [label="gini = 0.0\nsamples = 1\nvalue = [0, 4]"] ;
163 -> 165 ;
166 [label="X[42] <= 0.5\ngini = 0.467\nsamples = 66\nvalue = [52, 88]"] ;
106 -> 166 ;
167 [label="X[62] <= 0.5\ngini = 0.498\nsamples = 41\nvalue = [39, 44]"] ;
166 -> 167 ;
168 [label="X[32] <= 0.5\ngini = 0.278\nsamples = 16\nvalue = [6, 30]"] ;
167 -> 168 ;
169 [label="X[14] <= 0.5\ngini = 0.469\nsamples = 10\nvalue = [6, 10]"] ;
168 -> 169 ;
170 [label="X[33] <= 0.5\ngini = 0.198\nsamples = 4\nvalue = [1, 8]"] ;
169 -> 170 ;
171 [label="gini = 0.0\nsamples = 3\nvalue = [0, 8]"] ;
170 -> 171 ;
172 [label="gini = 0.0\nsamples = 1\nvalue = [1, 0]"] ;
170 -> 172 ;
173 [label="X[37] <= 0.5\ngini = 0.408\nsamples = 6\nvalue = [5, 2]"] ;
169 -> 173 ;
174 [label="gini = 0.0\nsamples = 1\nvalue = [0, 2]"] ;
173 -> 174 ;
175 [label="gini = 0.0\nsamples = 5\nvalue = [5, 0]"] ;
173 -> 175 ;
176 [label="gini = 0.0\nsamples = 6\nvalue = [0, 20]"] ;
168 -> 176 ;
177 [label="X[8] <= 0.5\ngini = 0.418\nsamples = 25\nvalue = [33, 14]"] ;
167 -> 177 ;
178 [label="X[18] <= 0.5\ngini = 0.128\nsamples = 16\nvalue = [27, 2]"] ;
177 -> 178 ;
179 [label="gini = 0.0\nsamples = 13\nvalue = [24, 0]"] ;
178 -> 179 ;
180 [label="X[15] <= 0.5\ngini = 0.48\nsamples = 3\nvalue = [3, 2]"] ;
178 -> 180 ;
181 [label="gini = 0.0\nsamples = 2\nvalue = [3, 0]"] ;
180 -> 181 ;
182 [label="gini = 0.0\nsamples = 1\nvalue = [0, 2]"] ;
180 -> 182 ;
183 [label="X[46] <= 0.5\ngini = 0.444\nsamples = 9\nvalue = [6, 12]"] ;
177 -> 183 ;
184 [label="gini = 0.0\nsamples = 3\nvalue = [4, 0]"] ;
183 -> 184 ;
185 [label="X[15] <= 0.5\ngini = 0.245\nsamples = 6\nvalue = [2, 12]"] ;
183 -> 185 ;
186 [label="X[0] <= 0.5\ngini = 0.444\nsamples = 2\nvalue = [1, 2]"] ;
185 -> 186 ;
187 [label="gini = 0.0\nsamples = 1\nvalue = [0, 2]"] ;
186 -> 187 ;
188 [label="gini = 0.0\nsamples = 1\nvalue = [1, 0]"] ;
186 -> 188 ;
189 [label="X[10] <= 0.5\ngini = 0.165\nsamples = 4\nvalue = [1, 10]"] ;
185 -> 189 ;
190 [label="gini = 0.0\nsamples = 1\nvalue = [1, 0]"] ;
189 -> 190 ;
191 [label="gini = 0.0\nsamples = 3\nvalue = [0, 10]"] ;
189 -> 191 ;
192 [label="X[18] <= 0.5\ngini = 0.352\nsamples = 25\nvalue = [13, 44]"] ;
166 -> 192 ;
193 [label="X[60] <= 0.5\ngini = 0.483\nsamples = 16\nvalue = [11, 16]"] ;
192 -> 193 ;
194 [label="X[32] <= 0.5\ngini = 0.444\nsamples = 3\nvalue = [4, 2]"] ;
193 -> 194 ;
195 [label="gini = 0.0\nsamples = 1\nvalue = [0, 2]"] ;
194 -> 195 ;
196 [label="gini = 0.0\nsamples = 2\nvalue = [4, 0]"] ;
194 -> 196 ;
197 [label="X[38] <= 0.5\ngini = 0.444\nsamples = 13\nvalue = [7, 14]"] ;
193 -> 197 ;
198 [label="X[35] <= 0.5\ngini = 0.5\nsamples = 8\nvalue = [6, 6]"] ;
197 -> 198 ;
199 [label="X[6] <= 0.5\ngini = 0.444\nsamples = 5\nvalue = [3, 6]"] ;
198 -> 199 ;
200 [label="X[20] <= 0.5\ngini = 0.245\nsamples = 4\nvalue = [1, 6]"] ;
199 -> 200 ;
201 [label="gini = 0.0\nsamples = 3\nvalue = [0, 6]"] ;
200 -> 201 ;
202 [label="gini = 0.0\nsamples = 1\nvalue = [1, 0]"] ;
200 -> 202 ;
203 [label="gini = 0.0\nsamples = 1\nvalue = [2, 0]"] ;
199 -> 203 ;
204 [label="gini = 0.0\nsamples = 3\nvalue = [3, 0]"] ;
198 -> 204 ;
205 [label="X[6] <= 0.5\ngini = 0.198\nsamples = 5\nvalue = [1, 8]"] ;
197 -> 205 ;
206 [label="gini = 0.0\nsamples = 3\nvalue = [0, 6]"] ;
205 -> 206 ;
207 [label="X[30] <= 0.5\ngini = 0.444\nsamples = 2\nvalue = [1, 2]"] ;
205 -> 207 ;
208 [label="gini = 0.0\nsamples = 1\nvalue = [1, 0]"] ;
207 -> 208 ;
209 [label="gini = 0.0\nsamples = 1\nvalue = [0, 2]"] ;
207 -> 209 ;
210 [label="X[10] <= 0.5\ngini = 0.124\nsamples = 9\nvalue = [2, 28]"] ;
192 -> 210 ;
211 [label="X[20] <= 0.5\ngini = 0.444\nsamples = 2\nvalue = [2, 4]"] ;
210 -> 211 ;
212 [label="gini = 0.0\nsamples = 1\nvalue = [0, 4]"] ;
211 -> 212 ;
213 [label="gini = 0.0\nsamples = 1\nvalue = [2, 0]"] ;
211 -> 213 ;
214 [label="gini = 0.0\nsamples = 7\nvalue = [0, 24]"] ;
210 -> 214 ;
}