digraph Tree {
node [shape=box, fontname="helvetica"] ;
edge [fontname="helvetica"] ;
0 [label="X[39] <= 0.5\ngini = 0.452\nsamples = 250\nvalue = [205, 390]"] ;
1 [label="X[19] <= 0.5\ngini = 0.389\nsamples = 120\nvalue = [82, 228]"] ;
0 -> 1 [labeldistance=2.5, labelangle=45, headlabel="True"] ;
2 [label="X[31] <= 0.5\ngini = 0.477\nsamples = 55\nvalue = [53, 82]"] ;
1 -> 2 ;
3 [label="X[60] <= 0.5\ngini = 0.5\nsamples = 40\nvalue = [42, 42]"] ;
2 -> 3 ;
4 [label="X[2] <= 0.5\ngini = 0.284\nsamples = 22\nvalue = [29, 6]"] ;
3 -> 4 ;
5 [label="gini = 0.0\nsamples = 9\nvalue = [13, 0]"] ;
4 -> 5 ;
6 [label="X[61] <= 0.5\ngini = 0.397\nsamples = 13\nvalue = [16, 6]"] ;
4 -> 6 ;
7 [label="X[11] <= 0.5\ngini = 0.219\nsamples = 10\nvalue = [14, 2]"] ;
6 -> 7 ;
8 [label="gini = 0.0\nsamples = 7\nvalue = [10, 0]"] ;
7 -> 8 ;
9 [label="X[1] <= 0.5\ngini = 0.444\nsamples = 3\nvalue = [4, 2]"] ;
7 -> 9 ;
10 [label="gini = 0.0\nsamples = 1\nvalue = [0, 2]"] ;
9 -> 10 ;
11 [label="gini = 0.0\nsamples = 2\nvalue = [4, 0]"] ;
9 -> 11 ;
12 [label="X[48] <= 0.5\ngini = 0.444\nsamples = 3\nvalue = [2, 4]"] ;
6 -> 12 ;
13 [label="gini = 0.0\nsamples = 2\nvalue = [2, 0]"] ;
12 -> 13 ;
14 [label="gini = 0.0\nsamples = 1\nvalue = [0, 4]"] ;
12 -> 14 ;
15 [label="X[22] <= 0.5\ngini = 0.39\nsamples = 18\nvalue = [13, 36]"] ;
3 -> 15 ;
16 [label="X[34] <= 0.5\ngini = 0.231\nsamples = 9\nvalue = [4, 26]"] ;
15 -> 16 ;
17 [label="X[1] <= 0.5\ngini = 0.153\nsamples = 6\nvalue = [2, 22]"] ;
16 -> 17 ;
18 [label="gini = 0.0\nsamples = 1\nvalue = [1, 0]"] ;
17 -> 18 ;
19 [label="X[13] <= 0.5\ngini = 0.083\nsamples = 5\nvalue = [1, 22]"] ;
17 -> 19 ;
20 [label="gini = 0.0\nsamples = 4\nvalue = [0, 22]"] ;
19 -> 20 ;
21 [label="gini = 0.0\nsamples = 1\nvalue = [1, 0]"] ;
19 -> 21 ;
22 [label="X[50] <= 0.5\ngini = 0.444\nsamples = 3\nvalue = [2, 4]"] ;
16 -> 22 ;
23 [label="gini = 0.0\nsamples = 1\nvalue = [0, 2]"] ;
22 -> 23 ;
24 [label="X[28] <= 0.5\ngini = 0.5\nsamples = 2\nvalue = [2, 2]"] ;
22 -> 24 ;
25 [label="gini = 0.0\nsamples = 1\nvalue = [2, 0]"] ;
24 -> 25 ;
26 [label="gini = 0.0\nsamples = 1\nvalue = [0, 2]"] ;
24 -> 26 ;
27 [label="X[9] <= 0.5\ngini = 0.499\nsamples = 9\nvalue = [9, 10]"] ;
15 -> 27 ;
28 [label="X[7] <= 0.5\ngini = 0.444\nsamples = 5\nvalue = [5, 10]"] ;
27 -> 28 ;
29 [label="gini = 0.0\nsamples = 1\nvalue = [0, 6]"] ;
28 -> 29 ;
30 [label="X[53] <= 0.5\ngini = 0.494\nsamples = 4\nvalue = [5, 4]"] ;
28 -> 30 ;
31 [label="gini = 0.0\nsamples = 1\nvalue = [0, 4]"] ;
30 -> 31 ;
32 [label="gini = 0.0\nsamples = 3\nvalue = [5, 0]"] ;
30 -> 32 ;
33 [label="gini = 0.0\nsamples = 4\nvalue = [4, 0]"] ;
27 -> 33 ;
34 [label="X[3] <= 0.5\ngini = 0.338\nsamples = 15\nvalue = [11, 40]"] ;
2 -> 34 ;
35 [label="X[23] <= 0.5\ngini = 0.214\nsamples = 10\nvalue = [5, 36]"] ;
34 -> 35 ;
36 [label="X[32] <= 0.5\ngini = 0.444\nsamples = 4\nvalue = [4, 8]"] ;
35 -> 36 ;
37 [label="gini = 0.0\nsamples = 2\nvalue = [4, 0]"] ;
36 -> 37 ;
38 [label="gini = 0.0\nsamples = 2\nvalue = [0, 8]"] ;
36 -> 38 ;
39 [label="X[55] <= 0.5\ngini = 0.067\nsamples = 6\nvalue = [1, 28]"] ;
35 -> 39 ;
40 [label="X[0] <= 0.5\ngini = 0.444\nsamples = 2\nvalue = [1, 2]"] ;
39 -> 40 ;
41 [label="gini = 0.0\nsamples = 1\nvalue = [0, 2]"] ;
40 -> 41 ;
42 [label="gini = 0.0\nsamples = 1\nvalue = [1, 0]"] ;
40 -> 42 ;
43 [label="gini = 0.0\nsamples = 4\nvalue = [0, 26]"] ;
39 -> 43 ;
44 [label="X[5] <= 0.5\ngini = 0.48\nsamples = 5\nvalue = [6, 4]"] ;
34 -> 44 ;
45 [label="gini = 0.0\nsamples = 3\nvalue = [6, 0]"] ;
44 -> 45 ;
46 [label="gini = 0.0\nsamples = 2\nvalue = [0, 4]"] ;
44 -> 46 ;
47 [label="X[51] <= 0.5\ngini = 0.277\nsamples = 65\nvalue = [29, 146]"] ;
1 -> 47 ;
48 [label="X[23] <= 0.5\ngini = 0.233\nsamples = 35\nvalue = [14, 90]"] ;
47 -> 48 ;
49 [label="X[54] <= 0.5\ngini = 0.149\nsamples = 23\nvalue = [6, 68]"] ;
48 -> 49 ;
50 [label="X[40] <= 0.5\ngini = 0.043\nsamples = 14\nvalue = [1, 44]"] ;
49 -> 50 ;
51 [label="gini = 0.0\nsamples = 8\nvalue = [0, 30]"] ;
50 -> 51 ;
52 [label="X[30] <= 0.5\ngini = 0.124\nsamples = 6\nvalue = [1, 14]"] ;
50 -> 52 ;
53 [label="X[43] <= 0.5\ngini = 0.32\nsamples = 3\nvalue = [1, 4]"] ;
52 -> 53 ;
54 [label="X[47] <= 0.5\ngini = 0.444\nsamples = 2\nvalue = [1, 2]"] ;
53 -> 54 ;
55 [label="gini = 0.0\nsamples = 1\nvalue = [1, 0]"] ;
54 -> 55 ;
56 [label="gini = 0.0\nsamples = 1\nvalue = [0, 2]"] ;
54 -> 56 ;
57 [label="gini = 0.0\nsamples = 1\nvalue = [0, 2]"] ;
53 -> 57 ;
58 [label="gini = 0.0\nsamples = 3\nvalue = [0, 10]"] ;
52 -> 58 ;
59 [label="X[26] <= 0.5\ngini = 0.285\nsamples = 9\nvalue = [5, 24]"] ;
49 -> 59 ;
60 [label="gini = 0.0\nsamples = 4\nvalue = [5, 0]"] ;
59 -> 60 ;
61 [label="gini = 0.0\nsamples = 5\nvalue = [0, 24]"] ;
59 -> 61 ;
62 [label="X[49] <= 0.5\ngini = 0.391\nsamples = 12\nvalue = [8, 22]"] ;
48 -> 62 ;
63 [label="X[13] <= 0.5\ngini = 0.302\nsamples = 10\nvalue = [5, 22]"] ;
62 -> 63 ;
64 [label="gini = 0.0\nsamples = 3\nvalue = [0, 12]"] ;
63 -> 64 ;
65 [label="X[18] <= 0.5\ngini = 0.444\nsamples = 7\nvalue = [5, 10]"] ;
63 -> 65 ;
66 [label="X[55] <= 0.5\ngini = 0.408\nsamples = 3\nvalue = [5, 2]"] ;
65 -> 66 ;
67 [label="X[20] <= 0.5\ngini = 0.5\nsamples = 2\nvalue = [2, 2]"] ;
66 -> 67 ;
68 [label="gini = 0.0\nsamples = 1\nvalue = [2, 0]"] ;
67 -> 68 ;
69 [label="gini = 0.0\nsamples = 1\nvalue = [0, 2]"] ;
67 -> 69 ;
70 [label="gini = 0.0\nsamples = 1\nvalue = [3, 0]"] ;
66 -> 70 ;
71 [label="gini = 0.0\nsamples = 4\nvalue = [0, 8]"] ;
65 -> 71 ;
72 [label="gini = 0.0\nsamples = 2\nvalue = [3, 0]"] ;
62 -> 72 ;
73 [label="X[40] <= 0.5\ngini = 0.333\nsamples = 30\nvalue = [15, 56]"] ;
47 -> 73 ;
74 [label="X[4] <= 0.5\ngini = 0.478\nsamples = 16\nvalue = [13, 20]"] ;
73 -> 74 ;
75 [label="gini = 0.0\nsamples = 3\nvalue = [3, 0]"] ;
74 -> 75 ;
76 [label="X[43] <= 0.5\ngini = 0.444\nsamples = 13\nvalue = [10, 20]"] ;
74 -> 76 ;
77 [label="X[32] <= 0.5\ngini = 0.497\nsamples = 7\nvalue = [7, 6]"] ;
76 -> 77 ;
78 [label="X[30] <= 0.5\ngini = 0.346\nsamples = 6\nvalue = [7, 2]"] ;
77 -> 78 ;
79 [label="X[24] <= 0.5\ngini = 0.5\nsamples = 2\nvalue = [2, 2]"] ;
78 -> 79 ;
80 [label="gini = 0.0\nsamples = 1\nvalue = [2, 0]"] ;
79 -> 80 ;
81 [label="gini = 0.0\nsamples = 1\nvalue = [0, 2]"] ;
79 -> 81 ;
82 [label="gini = 0.0\nsamples = 4\nvalue = [5, 0]"] ;
78 -> 82 ;
83 [label="gini = 0.0\nsamples = 1\nvalue = [0, 4]"] ;
77 -> 83 ;
84 [label="X[3] <= 0.5\ngini = 0.291\nsamples = 6\nvalue = [3, 14]"] ;
76 -> 84 ;
85 [label="gini = 0.0\nsamples = 1\nvalue = [2, 0]"] ;
84 -> 85 ;
86 [label="X[61] <= 0.5\ngini = 0.124\nsamples = 5\nvalue = [1, 14]"] ;
84 -> 86 ;
87 [label="gini = 0.0\nsamples = 3\nvalue = [0, 10]"] ;
86 -> 87 ;
88 [label="X[59] <= 0.5\ngini = 0.32\nsamples = 2\nvalue = [1, 4]"] ;
86 -> 88 ;
89 [label="gini = 0.0\nsamples = 1\nvalue = [1, 0]"] ;
88 -> 89 ;
90 [label="gini = 0.0\nsamples = 1\nvalue = [0, 4]"] ;
88 -> 90 ;
91 [label="X[35] <= 0.5\ngini = 0.1\nsamples = 14\nvalue = [2, 36]"] ;
73 -> 91 ;
92 [label="X[58] <= 0.5\ngini = 0.278\nsamples = 6\nvalue = [2, 10]"] ;
91 -> 92 ;
93 [label="gini = 0.0\nsamples = 2\nvalue = [2, 0]"] ;
92 -> 93 ;
94 [label="gini = 0.0\nsamples = 4\nvalue = [0, 10]"] ;
92 -> 94 ;
95 [label="gini = 0.0\nsamples = 8\nvalue = [0, 26]"] ;
91 -> 95 ;
96 [label="X[12] <= 0.5\ngini = 0.491\nsamples = 130\nvalue = [123, 162]"] ;
0 -> 96 [labeldistance=2.5, labelangle=-45, headlabel="False"] ;
97 [label="X[18] <= 0.5\ngini = 0.492\nsamples = 56\nvalue = [64, 50]"] ;
96 -> 97 ;
98 [label="X[16] <= 0.5\ngini = 0.5\nsamples = 32\nvalue = [34, 34]"] ;
97 -> 98 ;
99 [label="X[55] <= 0.5\ngini = 0.438\nsamples = 22\nvalue = [25, 12]"] ;
98 -> 99 ;
100 [label="X[63] <= 0.5\ngini = 0.498\nsamples = 12\nvalue = [9, 8]"] ;
99 -> 100 ;
101 [label="X[56] <= 0.5\ngini = 0.48\nsamples = 7\nvalue = [4, 6]"] ;
100 -> 101 ;
102 [label="gini = 0.0\nsamples = 2\nvalue = [2, 0]"] ;
101 -> 102 ;
103 [label="X[28] <= 0.5\ngini = 0.375\nsamples = 5\nvalue = [2, 6]"] ;
101 -> 103 ;
104 [label="X[30] <= 0.5\ngini = 0.245\nsamples = 4\nvalue = [1, 6]"] ;
103 -> 104 ;
105 [label="gini = 0.0\nsamples = 3\nvalue = [0, 6]"] ;
104 -> 105 ;
106 [label="gini = 0.0\nsamples = 1\nvalue = [1, 0]"] ;
104 -> 106 ;
107 [label="gini = 0.0\nsamples = 1\nvalue = [1, 0]"] ;
103 -> 107 ;
108 [label="X[13] <= 0.5\ngini = 0.408\nsamples = 5\nvalue = [5, 2]"] ;
100 -> 108 ;
109 [label="gini = 0.0\nsamples = 3\nvalue = [4, 0]"] ;
108 -> 109 ;
110 [label="X[7] <= 0.5\ngini = 0.444\nsamples = 2\nvalue = [1, 2]"] ;
108 -> 110 ;
111 [label="gini = 0.0\nsamples = 1\nvalue = [0, 2]"] ;
110 -> 111 ;
112 [label="gini = 0.0\nsamples = 1\nvalue = [1, 0]"] ;
110 -> 112 ;
113 [label="X[33] <= 0.5\ngini = 0.32\nsamples = 10\nvalue = [16, 4]"] ;
99 -> 113 ;
114 [label="gini = 0.0\nsamples = 5\nvalue = [7, 0]"] ;
113 -> 114 ;
115 [label="X[26] <= 0.5\ngini = 0.426\nsamples = 5\nvalue = [9, 4]"] ;
113 -> 115 ;
116 [label="X[31] <= 0.5\ngini = 0.298\nsamples = 4\nvalue = [9, 2]"] ;
115 -> 116 ;
117 [label="gini = 0.0\nsamples = 2\nvalue = [5, 0]"] ;
116 -> 117 ;
118 [label="X[30] <= 0.5\ngini = 0.444\nsamples = 2\nvalue = [4, 2]"] ;
116 -> 118 ;
119 [label="gini = 0.0\nsamples = 1\nvalue = [0, 2]"] ;
118 -> 119 ;
120 [label="gini = 0.0\nsamples = 1\nvalue = [4, 0]"] ;
118 -> 120 ;
121 [label="gini = 0.0\nsamples = 1\nvalue = [0, 2]"] ;
115 -> 121 ;
122 [label="X[7] <= 0.5\ngini = 0.412\nsamples = 10\nvalue = [9, 22]"] ;
98 -> 122 ;
123 [label="gini = 0.0\nsamples = 5\nvalue = [0, 14]"] ;
122 -> 123 ;
124 [label="X[29] <= 0.5\ngini = 0.498\nsamples = 5\nvalue = [9, 8]"] ;
122 -> 124 ;
125 [label="gini = 0.0\nsamples = 4\nvalue = [9, 0]"] ;
124 -> 125 ;
126 [label="gini = 0.0\nsamples = 1\nvalue = [0, 8]"] ;
124 -> 126 ;
127 [label="X[62] <= 0.5\ngini = 0.454\nsamples = 24\nvalue = [30, 16]"] ;
97 -> 127 ;
128 [label="X[45] <= 0.5\ngini = 0.484\nsamples = 11\nvalue = [7, 10]"] ;
127 -> 128 ;
129 [label="gini = 0.0\nsamples = 6\nvalue = [6, 0]"] ;
128 -> 129 ;
130 [label="X[26] <= 0.5\ngini = 0.165\nsamples = 5\nvalue = [1, 10]"] ;
128 -> 130 ;
131 [label="gini = 0.0\nsamples = 3\nvalue = [0, 8]"] ;
130 -> 131 ;
132 [label="X[38] <= 0.5\ngini = 0.444\nsamples = 2\nvalue = [1, 2]"] ;
130 -> 132 ;
133 [label="gini = 0.0\nsamples = 1\nvalue = [0, 2]"] ;
132 -> 133 ;
134 [label="gini = 0.0\nsamples = 1\nvalue = [1, 0]"] ;
132 -> 134 ;
135 [label="X[56] <= 0.5\ngini = 0.328\nsamples = 13\nvalue = [23, 6]"] ;
127 -> 135 ;
136 [label="X[41] <= 0.5\ngini = 0.165\nsamples = 9\nvalue = [20, 2]"] ;
135 -> 136 ;
137 [label="gini = 0.0\nsamples = 7\nvalue = [18, 0]"] ;
136 -> 137 ;
138 [label="X[50] <= 0.5\ngini = 0.5\nsamples = 2\nvalue = [2, 2]"] ;
136 -> 138 ;
139 [label="gini = 0.0\nsamples = 1\nvalue = [2, 0]"] ;
138 -> 139 ;
140 [label="gini = 0.0\nsamples = 1\nvalue = [0, 2]"] ;
138 -> 140 ;
141 [label="X[22] <= 0.5\ngini = 0.49\nsamples = 4\nvalue = [3, 4]"] ;
135 -> 141 ;
142 [label="gini = 0.0\nsamples = 2\nvalue = [3, 0]"] ;
141 -> 142 ;
143 [label="gini = 0.0\nsamples = 2\nvalue = [0, 4]"] ;
141 -> 143 ;
144 [label="X[17] <= 0.5\ngini = 0.452\nsamples = 74\nvalue = [59, 112]"] ;
96 -> 144 ;
145 [label="X[43] <= 0.5\ngini = 0.49\nsamples = 46\nvalue = [45, 60]"] ;
144 -> 145 ;
146 [label="X[27] <= 0.5\ngini = 0.371\nsamples = 26\nvalue = [15, 46]"] ;
145 -> 146 ;
147 [label="X[41] <= 0.5\ngini = 0.484\nsamples = 17\nvalue = [14, 20]"] ;
146 -> 147 ;
148 [label="X[63] <= 0.5\ngini = 0.375\nsamples = 8\nvalue = [4, 12]"] ;
147 -> 148 ;
149 [label="X[32] <= 0.5\ngini = 0.198\nsamples = 3\nvalue = [1, 8]"] ;
148 -> 149 ;
150 [label="gini = 0.0\nsamples = 2\nvalue = [0, 8]"] ;
149 -> 150 ;
151 [label="gini = 0.0\nsamples = 1\nvalue = [1, 0]"] ;
149 -> 151 ;
152 [label="X[14] <= 0.5\ngini = 0.49\nsamples = 5\nvalue = [3, 4]"] ;
148 -> 152 ;
153 [label="gini = 0.0\nsamples = 2\nvalue = [0, 4]"] ;
152 -> 153 ;
154 [label="gini = 0.0\nsamples = 3\nvalue = [3, 0]"] ;
152 -> 154 ;
155 [label="X[51] <= 0.5\ngini = 0.494\nsamples = 9\nvalue = [10, 8]"] ;
147 -> 155 ;
156 [label="X[0] <= 0.5\ngini = 0.49\nsamples = 6\nvalue = [6, 8]"] ;
155 -> 156 ;
157 [label="X[26] <= 0.5\ngini = 0.245\nsamples = 3\nvalue = [1, 6]"] ;
156 -> 157 ;
158 [label="gini = 0.0\nsamples = 2\nvalue = [0, 6]"] ;
157 -> 158 ;
159 [label="gini = 0.0\nsamples = 1\nvalue = [1, 0]"] ;
157 -> 159 ;
160 [label="X[7] <= 0.5\ngini = 0.408\nsamples = 3\nvalue = [5, 2]"] ;
156 -> 160 ;
161 [label="gini = 0.0\nsamples = 2\nvalue = [5, 0]"] ;
160 -> 161 ;
162 [label="gini = 0.0\nsamples = 1\nvalue = [0, 2]"] ;
160 -> 162 ;
163 [label="gini = 0.0\nsamples = 3\nvalue = [4, 0]"] ;
155 -> 163 ;
164 [label="X[20] <= 0.5\ngini = 0.071\nsamples = 9\nvalue = [1, 26]"] ;
146 -> 164 ;
165 [label="X[1] <= 0.5\ngini = 0.444\nsamples = 2\nvalue = [1, 2]"] ;
164 -> 165 ;
166 [label="gini = 0.0\nsamples = 1\nvalue = [1, 0]"] ;
165 -> 166 ;
167 [label="gini = 0.0\nsamples = 1\nvalue = [0, 2]"] ;
165 -> 167 ;
168 [label="gini = 0.0\nsamples = 7\nvalue = [0, 24]"] ;
164 -> 168 ;
169 [label="X[52] <= 0.5\ngini = 0.434\nsamples = 20\nvalue = [30, 14]"] ;
145 -> 169 ;
170 [label="X[20] <= 0.5\ngini = 0.32\nsamples = 9\nvalue = [16, 4]"] ;
169 -> 170 ;
171 [label="gini = 0.0\nsamples = 4\nvalue = [8, 0]"] ;
170 -> 171 ;
172 [label="X[36] <= 0.5\ngini = 0.444\nsamples = 5\nvalue = [8, 4]"] ;
170 -> 172 ;
173 [label="gini = 0.0\nsamples = 1\nvalue = [3, 0]"] ;
172 -> 173 ;
174 [label="X[33] <= 0.5\ngini = 0.494\nsamples = 4\nvalue = [5, 4]"] ;
172 -> 174 ;
175 [label="gini = 0.0\nsamples = 2\nvalue = [5, 0]"] ;
174 -> 175 ;
176 [label="gini = 0.0\nsamples = 2\nvalue = [0, 4]"] ;
174 -> 176 ;
177 [label="X[50] <= 0.5\ngini = 0.486\nsamples = 11\nvalue = [14, 10]"] ;
169 -> 177 ;
178 [label="X[9] <= 0.5\ngini = 0.375\nsamples = 4\nvalue = [2, 6]"] ;
177 -> 178 ;
179 [label="X[5] <= 0.5\ngini = 0.245\nsamples = 3\nvalue = [1, 6]"] ;
178 -> 179 ;
180 [label="gini = 0.0\nsamples = 1\nvalue = [1, 0]"] ;
179 -> 180 ;
181 [label="gini = 0.0\nsamples = 2\nvalue = [0, 6]"] ;
179 -> 181 ;
182 [label="gini = 0.0\nsamples = 1\nvalue = [1, 0]"] ;
178 -> 182 ;
183 [label="X[55] <= 0.5\ngini = 0.375\nsamples = 7\nvalue = [12, 4]"] ;
177 -> 183 ;
184 [label="X[38] <= 0.5\ngini = 0.49\nsamples = 4\nvalue = [3, 4]"] ;
183 -> 184 ;
185 [label="gini = 0.0\nsamples = 2\nvalue = [3, 0]"] ;
184 -> 185 ;
186 [label="gini = 0.0\nsamples = 2\nvalue = [0, 4]"] ;
184 -> 186 ;
187 [label="gini = 0.0\nsamples = 3\nvalue = [9, 0]"] ;
183 -> 187 ;
188 [label="X[18] <= 0.5\ngini = 0.334\nsamples = 28\nvalue = [14, 52]"] ;
144 -> 188 ;
189 [label="X[31] <= 0.5\ngini = 0.5\nsamples = 7\nvalue = [6, 6]"] ;
188 -> 189 ;
190 [label="gini = 0.0\nsamples = 3\nvalue = [4, 0]"] ;
189 -> 190 ;
191 [label="X[7] <= 0.5\ngini = 0.375\nsamples = 4\nvalue = [2, 6]"] ;
189 -> 191 ;
192 [label="X[4] <= 0.5\ngini = 0.5\nsamples = 2\nvalue = [2, 2]"] ;
191 -> 192 ;
193 [label="gini = 0.0\nsamples = 1\nvalue = [0, 2]"] ;
192 -> 193 ;
194 [label="gini = 0.0\nsamples = 1\nvalue = [2, 0]"] ;
192 -> 194 ;
195 [label="gini = 0.0\nsamples = 2\nvalue = [0, 4]"] ;
191 -> 195 ;
196 [label="X[47] <= 0.5\ngini = 0.252\nsamples = 21\nvalue = [8, 46]"] ;
188 -> 196 ;
197 [label="gini = 0.0\nsamples = 6\nvalue = [0, 22]"] ;
196 -> 197 ;
198 [label="X[49] <= 0.5\ngini = 0.375\nsamples = 15\nvalue = [8, 24]"] ;
196 -> 198 ;
199 [label="X[16] <= 0.5\ngini = 0.426\nsamples = 13\nvalue = [8, 18]"] ;
198 -> 199 ;
200 [label="X[7] <= 0.5\ngini = 0.444\nsamples = 4\nvalue = [4, 2]"] ;
199 -> 200 ;
201 [label="gini = 0.0\nsamples = 1\nvalue = [0, 2]"] ;
200 -> 201 ;
202 [label="gini = 0.0\nsamples = 3\nvalue = [4, 0]"] ;
200 -> 202 ;
203 [label="X[29] <= 0.5\ngini = 0.32\nsamples = 9\nvalue = [4, 16]"] ;
199 -> 203 ;
204 [label="gini = 0.0\nsamples = 1\nvalue = [2, 0]"] ;
203 -> 204 ;
205 [label="X[14] <= 0.5\ngini = 0.198\nsamples = 8\nvalue = [2, 16]"] ;
203 -> 205 ;
206 [label="X[55] <= 0.5\ngini = 0.444\nsamples = 4\nvalue = [2, 4]"] ;
205 -> 206 ;
207 [label="gini = 0.0\nsamples = 2\nvalue = [2, 0]"] ;
206 -> 207 ;
208 [label="gini = 0.0\nsamples = 2\nvalue = [0, 4]"] ;
206 -> 208 ;
209 [label="gini = 0.0\nsamples = 4\nvalue = [0, 12]"] ;
205 -> 209 ;
210 [label="gini = 0.0\nsamples = 2\nvalue = [0, 6]"] ;
198 -> 210 ;
}